svm_type c_svc
kernel_type rbf
gamma 8
nr_class 2
total_sv 238
rho 0.020554
label -1 1
nr_sv 118 120
SV
1.015907984552287 1:1 2:-1 3:1 4:-1 6:-1 7:-1 8:1 9:-1 
0.7719007825242559 1:1 2:1 3:-1 4:-1 6:-1 7:-1 8:-1 9:0.2 
0.6767524038155915 1:1 2:-1 3:1 4:-1 6:-1 7:-1 8:1 9:-0.2 
0.6948440616237216 1:1 2:-1 3:1 4:-1 6:-1 7:-1 8:1 9:0.2 
1.206707430204922 1:1 2:-1 3:1 4:-1 6:-1 7:-1 8:-1 9:-0.2 
1.602346129252249 1:1 2:-1 3:1 4:-1 6:-0.882353 7:-1 8:-1 9:-0.2 
2 1:1 2:-1 3:1 4:-1 6:-0.882353 7:-1 8:-1 9:-0.2 
2 1:1 2:-1 3:1 4:-1 6:-0.882353 7:-1 8:-1 9:-0.2 
2 1:1 2:-1 3:1 4:-1 6:-0.882353 7:-1 8:-1 9:-0.2 
2 1:1 2:-1 3:1 4:-1 6:-0.882353 7:-1 8:-1 9:-0.2 
2 1:1 2:-1 3:1 4:-1 6:-0.882353 7:-1 8:-1 9:-0.2 
2 1:1 2:-1 3:1 4:-1 6:-0.882353 7:-1 8:-1 9:-0.2 
2 1:1 2:-1 3:1 4:-1 6:-0.882353 7:-1 8:-1 9:-0.2 
1.60342437608352 1:-1 2:1 3:-1 4:-1 6:-0.882353 7:-1 8:-1 9:-1 
2 1:1 2:-1 3:1 4:-1 6:-0.764706 7:-1 8:-1 9:-0.2 
2 1:1 2:-1 3:1 4:-1 6:-0.764706 7:-1 8:-1 9:-0.2 
2 1:1 2:-1 3:1 4:-1 6:-0.764706 7:-1 8:-1 9:-0.2 
2 1:1 2:-1 3:1 4:-1 6:-0.764706 7:-1 8:-1 9:-0.2 
2 1:1 2:-1 3:1 4:-1 6:-0.764706 7:-1 8:-1 9:-0.2 
2 1:1 2:-1 3:1 4:-1 6:-0.647059 7:-1 8:-1 9:-0.2 
2 1:-1 2:1 3:-1 4:-1 6:-0.764706 7:-1 8:-1 9:-1 
2 1:-1 2:1 3:-1 4:-1 6:-0.764706 7:-1 8:-1 9:-1 
0.4831607188129248 1:1 2:1 3:-1 4:-1 6:-0.647059 7:-1 8:-1 9:0.2 
0.09420131881640681 1:1 2:-1 3:1 4:-1 6:-0.647059 7:-1 8:1 9:0.2 
0.2339284767028878 1:1 2:-1 3:1 4:-1 6:-0.647059 7:-1 8:1 9:-0.2 
2 1:1 2:-1 3:1 4:-1 6:-0.647059 7:-1 8:-1 9:-0.2 
2 1:1 2:-1 3:1 4:-1 6:-0.529412 7:-1 8:-1 9:-0.2 
0.2850158292974699 1:-1 2:1 3:-1 4:-1 6:-0.647059 7:-1 8:-1 9:-1 
0.3126661196547952 1:1 2:1 3:-1 4:-1 6:-0.647059 7:-1 8:-1 9:-1 
0.0263691752376639 1:1 2:1 3:-1 4:-1 6:-0.529412 7:-1 8:-1 9:0.2 
0.4014441351857571 1:1 2:-1 3:1 4:-1 6:-0.529412 7:-1 8:1 9:0.2 
0.454091871343349 1:1 2:-1 3:1 4:-1 6:-0.411765 7:-1 8:1 9:-0.2 
2 1:1 2:-1 3:1 4:-1 6:-0.529412 7:-1 8:-1 9:-0.2 
2 1:1 2:-1 3:1 4:-1 6:-0.411765 7:-1 8:-1 9:-0.2 
2 1:-1 2:1 3:-1 4:-1 6:-0.529412 7:-1 8:-1 9:-1 
2 1:-1 2:1 3:-1 4:-1 6:-0.529412 7:-1 8:-1 9:-1 
0.1724267218560884 1:1 2:1 3:-1 4:-1 6:-0.529412 7:-1 8:-1 9:-1 
2 1:1 2:-1 3:1 4:-1 6:-0.411765 7:-1 8:-1 9:-0.2 
0.7716413060296357 1:1 2:-1 3:1 4:-1 6:-0.294118 7:-1 8:-1 9:-0.2 
2 1:-1 2:1 3:-1 4:-1 6:-0.411765 7:-1 8:-1 9:-1 
2 1:-1 2:1 3:-1 4:-1 6:-0.411765 7:-1 8:-1 9:-1 
1.6780732186751 1:1 2:-1 3:1 4:-1 6:-1 7:-1 8:-1 9:-1 
1.740851860210364 1:1 2:-1 3:1 4:-1 6:-0.294118 7:-1 8:-1 9:-0.2 
0.8653460303248592 1:1 2:1 3:-1 4:-1 6:-1 7:-1 8:1 9:-1 
0.5392500204982397 1:1 2:1 3:-1 4:-1 6:-1 7:-1 8:1 9:-0.6 
2 1:1 2:-1 3:1 4:-1 6:-1 7:-1 8:-1 9:-1 
2 1:1 2:-1 3:1 4:-1 6:-1 7:-1 8:-1 9:-1 
2 1:1 2:-1 3:1 4:-1 6:-1 7:-1 8:-1 9:-1 
2 1:1 2:-1 3:1 4:-1 6:-1 7:-1 8:-1 9:-1 
0.6807449794529462 1:1 2:1 3:-1 4:-1 6:-0.176471 7:-1 8:-1 9:0.2 
0.2086850739225197 1:1 2:-1 3:1 4:-1 6:-0.0588235 7:-1 8:1 9:-0.2 
0.5194311752779427 1:1 2:-1 3:1 4:-1 6:-0.176471 7:-1 8:1 9:0.2 
0.2721989676714656 1:1 2:-1 3:1 4:-1 6:-0.176471 7:-1 8:-1 9:-0.6 
0.6204908821222392 1:1 2:1 3:-1 4:-1 6:-0.176471 7:-1 8:-1 9:-1 
0.9828969297612435 1:1 2:-1 3:1 4:-1 6:-0.882353 7:-1 8:-1 9:-1 
2 1:1 2:1 3:-1 4:-1 6:-0.294118 7:-1 8:-1 9:-0.2 
2 1:1 2:1 3:-1 4:-1 6:-0.294118 7:-1 8:-1 9:-0.6 
0.1984646761126411 1:1 2:-1 3:1 4:-1 6:0.176471 7:-1 8:1 9:0.2 
0.409531855576629 1:1 2:-1 3:1 4:-1 6:0.0588235 7:-1 8:1 9:-0.2 
2 1:1 2:1 3:-1 4:-1 6:0.0588235 8:-1 9:-0.6 
2 1:1 2:1 3:-1 4:-1 6:0.0588235 8:-1 9:-0.6 
0.9523450592242063 1:1 2:-1 3:1 4:-1 6:-0.764706 7:-1 8:-1 9:-1 
2 1:1 2:-1 3:1 4:-1 6:-0.764706 7:-1 8:-1 9:-1 
1.183299659960309 1:1 2:1 3:-1 4:-1 6:-0.764706 7:-1 8:-1 9:-0.6 
1.770853211691422 1:1 2:1 3:-1 4:-1 6:-0.882353 7:-1 8:-1 9:-0.6 
2 1:1 2:1 3:-1 4:-1 6:-0.882353 7:-1 8:-1 9:-0.6 
0.2794151471900424 1:1 2:1 3:-1 4:-1 6:-0.411765 7:-1 8:-1 9:-0.2 
2 1:1 2:-1 3:1 4:-1 6:0.529412 7:0.666667 8:-1 9:1 
2 1:1 2:-1 3:1 4:-1 6:0.411765 7:0.666667 8:-1 9:1 
2 1:1 2:-1 3:1 4:-1 6:0.0588235 8:-1 9:1 
2 1:1 2:-1 3:1 4:-1 6:0.176471 7:0.333333 8:-1 9:1 
0.22294685883289 1:1 2:-1 3:1 4:-1 6:0.176471 7:-1 8:-1 9:-0.2 
0.5963781349784424 1:1 2:1 3:-1 4:-1 6:-0.411765 7:-1 8:-1 9:-0.6 
2 1:1 2:1 3:-1 4:-1 6:-0.294118 7:-1 8:-1 9:-0.6 
0.03706329300324916 1:1 2:1 3:-1 4:-1 6:0.176471 8:-1 9:-0.6 
0.6134883912710231 1:1 2:-1 3:1 4:-1 6:-0.411765 7:-1 8:-1 9:-1 
2 1:1 2:-1 3:1 4:-1 6:0.647059 7:0.666667 8:-1 9:1 
2 1:1 2:-1 3:1 4:-1 6:0.764706 7:0.666667 8:-1 9:1 
2 1:1 2:-1 3:1 4:-1 6:0.176471 8:-1 9:1 
2 1:1 2:-1 3:1 4:-1 6:0.294118 7:0.333333 8:-1 9:1 
1.172236258800811 1:1 2:1 3:-1 4:-1 6:0.176471 7:-1 8:-1 9:0.2 
0.8536650359081937 1:1 2:-1 3:1 4:-1 6:0.411765 7:-1 8:-1 9:-0.2 
0.7604545560812175 1:1 2:-1 3:1 4:-1 6:0.529412 7:-1 8:1 9:-0.2 
0.6186450322201839 1:1 2:-1 3:1 4:-1 6:0.411765 7:-1 8:1 9:0.2 
2 1:-1 2:-1 3:1 4:-1 6:-1 7:-1 8:-1 9:0.6 
2 1:-1 2:-1 3:1 4:-1 6:-1 7:-1 8:-1 9:0.6 
0.905697138998586 1:1 2:1 3:-1 4:-1 6:0.176471 7:-1 8:-1 9:-1 
2 1:-1 2:1 3:-1 4:-1 6:-1 7:-1 8:1 9:-1 
2 1:-1 2:1 3:-1 4:-1 6:-1 7:-1 8:1 9:-1 
0.270869420602436 1:-1 2:1 3:-1 4:-1 6:-1 7:-1 8:-1 9:-1 
2 1:-1 2:1 3:-1 4:-1 6:-1 7:-1 8:-1 9:-1 
2 1:1 2:1 3:-1 4:-1 6:-1 7:-1 8:-1 9:0.6 
2 1:1 2:1 3:-1 4:-1 6:-1 7:-1 8:-1 9:0.6 
2 1:1 2:1 3:-1 4:-1 6:-0.882353 7:-1 8:-1 9:-0.6 
2 1:1 2:1 3:-1 4:-1 6:-0.882353 7:-1 8:-1 9:-0.6 
0.5334889030214675 1:-1 2:1 3:-1 4:-1 6:-1 7:-1 8:-1 9:-0.2 
2 1:-1 2:1 3:-1 4:-1 6:-1 7:-1 8:-1 9:-1 
0.6699740190370851 1:-1 2:1 3:-1 4:-1 6:-1 7:-1 8:-1 9:-1 
1.33506054950958 1:1 2:-1 3:-1 4:1 6:-1 7:-1 8:-1 9:-0.2 
0.6324108074014847 1:1 2:-1 3:1 4:-1 6:-0.647059 7:-1 8:-1 9:-0.6 
0.2240073605427015 1:1 2:-1 3:1 4:-1 6:-1 7:-1 8:-1 9:-0.6 
0.6978709603428199 1:1 2:1 3:-1 4:-1 6:-1 7:-1 8:-1 9:-1 
0.5338547281974198 1:1 2:1 3:-1 4:-1 6:-1 7:-1 8:-1 9:-0.2 
1.99584441878817 1:1 2:1 3:-1 4:-1 6:-0.764706 7:-1 8:-1 9:-0.6 
1.250013572298501 1:1 2:1 3:-1 4:-1 6:-0.764706 7:-1 8:-1 9:-0.6 
0.5371175601166983 1:-1 2:1 3:-1 4:-1 6:-0.882353 7:-1 8:-1 9:-0.2 
1.471588931669686 1:1 2:-1 3:1 4:-1 6:-1 7:-1 8:-1 9:1 
1.995521443440146 1:1 2:1 3:-1 4:-1 6:-1 7:-1 8:-1 9:-0.6 
2 1:1 2:1 3:-1 4:-1 6:-1 7:-1 8:-1 9:-0.6 
1.054389410061914 1:1 2:1 3:-1 4:-1 6:-1 7:-1 8:-1 9:-0.6 
2 1:-1 2:1 3:-1 4:-1 6:-0.882353 7:-1 8:-1 9:-1 
2 1:-1 2:1 3:-1 4:-1 6:-0.882353 7:-1 8:-1 9:-1 
0.8655877442931291 1:1 2:1 3:-1 4:-1 6:-1 7:-1 8:1 9:-0.2 
0.4639405791800248 1:1 2:-1 3:1 4:-1 6:-0.529412 7:-1 8:-1 9:-0.6 
2 1:1 2:-1 3:-1 4:1 6:-0.882353 7:-1 8:-1 9:-0.2 
2 1:1 2:-1 3:-1 4:1 6:-0.764706 7:-1 8:-1 9:-0.2 
2 1:1 2:-1 3:1 4:-1 6:-1 7:-1 8:1 9:-1 
2 1:1 2:-1 3:1 4:-1 6:-1 7:-1 8:1 9:-1 
-2 1:1 2:1 3:-1 4:-1 6:-1 7:-1 8:-1 9:-0.6 
-2 1:1 2:1 3:-1 4:-1 6:-1 7:-1 8:-1 9:-0.6 
-2 1:1 2:-1 3:1 4:-1 6:-1 7:-1 8:1 9:-1 
-2 1:1 2:-1 3:1 4:-1 6:-1 7:-1 8:1 9:-1 
-0.0006565977167875523 1:1 2:1 3:-1 4:-1 6:-0.882353 7:-0.666667 8:-1 9:-0.6 
-1.442293455749945 1:1 2:1 3:-1 4:-1 6:-0.882353 7:-0.666667 8:-1 9:-0.6 
-2 1:1 2:-1 3:1 4:-1 6:-0.882353 7:-1 8:-1 9:-0.2 
-2 1:1 2:-1 3:1 4:-1 6:-0.882353 7:-1 8:-1 9:-0.2 
-1.089716143650447 1:1 2:-1 3:1 4:-1 6:-0.764706 7:-0.666667 8:-1 9:-0.2 
-2 1:1 2:-1 3:1 4:-1 6:-0.764706 7:-1 8:-1 9:-0.2 
-2 1:1 2:-1 3:1 4:-1 6:-1 7:-1 8:-1 9:-1 
-2 1:1 2:-1 3:1 4:-1 6:-1 7:-1 8:-1 9:-1 
-2 1:1 2:-1 3:1 4:-1 6:-1 7:-1 8:-1 9:-1 
-2 1:1 2:-1 3:1 4:-1 6:-1 7:-1 8:-1 9:-1 
-2 1:1 2:-1 3:1 4:-1 6:-0.764706 7:-1 8:-1 9:-0.2 
-1.840459052494588 1:1 2:-1 3:1 4:-1 6:-0.647059 7:-1 8:-1 9:-0.2 
-2 1:1 2:-1 3:1 4:-1 6:-0.647059 7:-1 8:-1 9:-0.2 
-2 1:1 2:-1 3:1 4:-1 6:-0.764706 7:-1 8:-1 9:-0.2 
-2 1:1 2:-1 3:1 4:-1 6:-0.764706 7:-1 8:-1 9:-0.2 
-2 1:1 2:-1 3:1 4:-1 6:-0.647059 7:-1 8:-1 9:-0.2 
-2 1:1 2:-1 3:1 4:-1 6:-0.882353 7:-1 8:-1 9:-1 
-1.258934909964798 1:1 2:-1 3:1 4:-1 6:-0.882353 7:-0.666667 8:-1 9:-1 
-0.9417939639812002 1:1 2:-1 3:1 4:-1 6:-0.529412 7:-1 8:-1 9:-0.2 
-2 1:1 2:-1 3:1 4:-1 6:-0.647059 7:-1 8:-1 9:-0.2 
-2 1:1 2:-1 3:1 4:-1 6:-0.647059 7:-1 8:-1 9:-0.2 
-2 1:1 2:-1 3:1 4:-1 6:-0.647059 7:-1 8:-1 9:-0.2 
-2 1:1 2:-1 3:1 4:-1 6:-0.647059 7:-1 8:-1 9:-0.2 
-2 1:1 2:-1 3:1 4:-1 6:-0.647059 7:-1 8:-1 9:-0.2 
-2 1:1 2:-1 3:1 4:-1 6:-1 7:-1 8:-1 9:-0.2 
-2 1:1 2:-1 3:1 4:-1 6:-1 7:-1 8:-1 9:-0.2 
-2 1:1 2:-1 3:1 4:-1 6:-0.764706 7:-1 8:-1 9:-1 
-0.7377777493598059 1:1 2:-1 3:1 4:-1 6:-0.529412 7:-0.333333 8:-1 9:-1 
-0.321767452590581 1:1 2:-1 3:1 4:-1 6:-0.764706 7:-0.666667 8:-1 9:-1 
-2 1:1 2:-1 3:1 4:-1 6:-0.411765 7:-1 8:-1 9:-0.2 
-2 1:1 2:-1 3:1 4:-1 6:-0.294118 7:-1 8:-1 9:-0.2 
-0.5239374349461995 1:1 2:-1 3:1 4:-1 6:-0.411765 7:-0.333333 8:-1 9:-0.2 
-2 1:1 2:-1 3:1 4:-1 6:-1 7:-1 8:-1 9:-0.2 
-0.7757354521438868 1:1 2:-1 3:1 4:-1 6:-0.294118 8:-1 9:-0.2 
-2 1:1 2:-1 3:1 4:-1 6:-1 7:-1 8:-1 9:-0.2 
-0.02548184416276707 1:1 2:1 3:-1 4:-1 6:-0.411765 7:-0.333333 8:-1 9:-0.6 
-0.08621028750040247 1:1 2:-1 3:1 4:-1 6:-0.294118 7:-0.666667 8:-1 9:0.6 
-0.4856954691110797 1:1 2:-1 3:1 4:-1 6:-0.411765 7:-0.333333 8:-1 9:0.6 
-1.159769429492833 1:1 2:-1 3:1 4:-1 6:-0.882353 7:-1 8:-1 9:0.6 
-0.6211834712997686 1:1 2:-1 3:1 4:-1 6:-0.0588235 7:-0.666667 8:-1 9:0.6 
-0.5969089187423174 1:1 2:-1 3:1 4:-1 6:-0.0588235 7:0.666667 8:-1 9:0.6 
-0.3359144195077562 1:1 2:-1 3:1 4:-1 6:-0.294118 8:-1 9:0.6 
-0.2621949393906449 1:1 2:-1 3:1 4:-1 6:-0.176471 7:0.333333 8:-1 9:0.6 
-2 1:-1 2:1 3:-1 4:-1 6:-0.294118 7:-1 8:-1 9:-1 
-2 1:-1 2:1 3:-1 4:-1 6:-0.294118 7:-1 8:-1 9:-1 
-0.1387401826300892 1:1 2:-1 3:1 4:-1 6:-0.176471 8:-1 9:0.6 
-0.1399203116993662 1:1 2:-1 3:1 4:-1 6:-0.0588235 7:0.333333 8:-1 9:0.6 
-0.3188778958862811 1:1 2:-1 3:1 4:-1 6:-0.764706 7:-0.666667 8:-1 9:0.6 
-2 1:1 2:1 3:-1 4:-1 6:-0.882353 7:-1 8:-1 9:-0.6 
-2 1:1 2:1 3:-1 4:-1 6:-0.882353 7:-1 8:-1 9:-0.6 
-0.0008387819461318155 1:1 2:-1 3:1 4:-1 6:-0.0588235 7:0.333333 8:-1 9:1 
-0.5462627530200802 1:1 2:-1 3:1 4:-1 6:-0.176471 8:-1 9:1 
-0.3846750242325197 1:1 2:-1 3:1 4:-1 6:-0.0588235 7:0.333333 8:-1 9:1 
-0.1960084928973939 1:-1 2:1 3:-1 4:-1 6:-0.176471 7:-1 8:-1 9:-1 
-0.9070895579490699 1:1 2:-1 3:1 4:-1 6:-0.647059 7:-0.666667 8:-1 9:1 
-2 1:1 2:1 3:-1 4:-1 6:-0.0588235 8:-1 9:-0.6 
-2 1:1 2:1 3:-1 4:-1 6:-0.0588235 8:-1 9:-0.6 
-0.005378499058321981 1:1 2:-1 3:1 4:-1 6:0.176471 7:-0.666667 8:-1 9:1 
-2 1:1 2:-1 3:1 4:-1 6:0.294118 7:0.666667 8:-1 9:1 
-0.5054607533180469 1:1 2:-1 3:1 4:-1 6:0.176471 7:0.666667 8:-1 9:1 
-2 1:1 2:-1 3:1 4:-1 6:0.0588235 8:-1 9:1 
-1.768194633821119 1:1 2:-1 3:1 4:-1 6:0.176471 7:0.333333 8:-1 9:1 
-0.01267826578712064 1:1 2:-1 3:1 4:-1 6:0.294118 7:-0.666667 8:-1 9:1 
-0.4327893460464299 1:1 2:-1 3:1 4:-1 6:0.176471 7:-0.666667 8:-1 9:1 
-0.5647791140311003 1:1 2:1 3:-1 4:-1 6:-0.0588235 7:-1 8:-1 9:-0.2 
-2 1:1 2:1 3:-1 4:-1 6:-0.176471 7:-1 8:-1 9:-0.2 
-2 1:1 2:1 3:-1 4:-1 6:-0.176471 7:-1 8:-1 9:-0.6 
-2 1:1 2:1 3:-1 4:-1 6:-0.294118 7:-1 8:-1 9:-0.6 
-2 1:1 2:-1 3:1 4:-1 6:0.176471 8:-1 9:1 
-1.59871931779521 1:1 2:-1 3:1 4:-1 6:0.294118 7:0.333333 8:-1 9:1 
-2 1:1 2:1 3:-1 4:-1 6:-0.764706 7:-1 8:-1 9:-0.6 
-2 1:1 2:1 3:-1 4:-1 6:-0.764706 7:-1 8:-1 9:-0.6 
-0.6149330027959028 1:1 2:-1 3:1 4:-1 6:0.529412 7:-0.666667 8:-1 9:1 
-0.4105381090831529 1:1 2:-1 3:1 4:-1 6:-0.176471 7:-0.666667 8:-1 9:1 
-0.01916847246209374 1:1 2:-1 3:1 4:-1 6:0.647059 7:-0.666667 8:-1 9:1 
-2 1:1 2:-1 3:1 4:-1 6:0.764706 7:0.666667 8:-1 9:1 
-1.893384235719332 1:1 2:-1 3:1 4:-1 6:0.882353 7:0.666667 8:-1 9:1 
-0.5729118238819975 1:1 2:-1 3:1 4:-1 6:0.294118 8:-1 9:1 
-0.6355714787739876 1:1 2:1 3:-1 4:-1 6:0.294118 7:-1 8:-1 9:-0.2 
-2 1:-1 2:1 3:-1 4:-1 6:-0.882353 7:-1 8:-1 9:-1 
-2 1:-1 2:1 3:-1 4:-1 6:-0.882353 7:-1 8:-1 9:-1 
-2 1:-1 2:1 3:-1 4:-1 6:-1 7:-1 8:-1 9:-1 
-2 1:-1 2:-1 3:1 4:-1 6:-1 7:-1 8:-1 9:0.6 
-2 1:-1 2:-1 3:1 4:-1 6:-1 7:-1 8:-1 9:0.6 
-2 1:1 2:-1 3:-1 4:1 6:-0.882353 7:-1 8:-1 9:-0.2 
-2 1:1 2:-1 3:-1 4:1 6:-0.764706 7:-1 8:-1 9:-0.2 
-2 1:1 2:1 3:-1 4:-1 6:-0.882353 7:-1 8:-1 9:-0.6 
-2 1:1 2:1 3:-1 4:-1 6:-0.882353 7:-1 8:-1 9:-0.6 
-2 1:-1 2:1 3:-1 4:-1 6:-1 7:-1 8:1 9:-1 
-2 1:-1 2:1 3:-1 4:-1 6:-1 7:-1 8:1 9:-1 
-0.7960982116291422 1:1 2:-1 3:1 4:-1 6:0.882353 7:1 8:-1 9:1 
-2 1:1 2:-1 3:1 4:-1 6:0.529412 7:0.666667 8:-1 9:1 
-0.429410768795267 1:1 2:1 3:-1 4:-1 6:0.529412 7:-0.333333 8:-1 9:-0.2 
-0.5041571270672933 1:1 2:1 3:-1 4:-1 6:0.411765 7:-0.666667 8:-1 9:-0.2 
-2 1:1 2:1 3:-1 4:-1 6:-1 7:-1 8:-1 9:0.6 
-2 1:1 2:1 3:-1 4:-1 6:-1 7:-1 8:-1 9:0.6 
-2 1:-1 2:1 3:-1 4:-1 6:-0.764706 7:-1 8:-1 9:-1 
-2 1:-1 2:1 3:-1 4:-1 6:-0.647059 7:-1 8:-1 9:-1 
-2 1:-1 2:1 3:-1 4:-1 6:-1 7:-1 8:-1 9:-1 
-0.3656199657045156 1:-1 2:-1 3:1 4:-1 6:-0.882353 7:-1 8:-1 9:0.6 
-0.3677997440579827 1:-1 2:-1 3:1 4:-1 6:-0.882353 7:-0.666667 8:-1 9:0.6 
-1.094350542438736 1:1 2:-1 3:-1 4:1 6:-0.764706 7:-0.666667 8:-1 9:-0.2 
-1.397924341048085 1:1 2:1 3:-1 4:-1 6:-0.411765 7:-0.666667 8:-1 9:-0.6 
-0.7159109711653355 1:-1 2:1 3:-1 4:-1 6:-0.882353 7:-0.666667 8:1 9:-1 
-0.7155691938977403 1:-1 2:1 3:-1 4:-1 6:-0.764706 7:-0.333333 8:1 9:-1 
-0.8651252104878973 1:1 2:-1 3:1 4:-1 6:1 7:-0.666667 8:-1 9:1 
-1.705736054280817 1:1 2:-1 3:1 4:-1 6:0.529412 7:0.333333 8:-1 9:1 
-0.6310690087953711 1:1 2:1 3:-1 4:-1 6:0.764706 7:-0.333333 8:-1 9:-0.2 
-0.5961809483210996 1:1 2:1 3:-1 4:-1 6:-0.882353 7:-0.666667 8:-1 9:0.6 
-0.5606048245977261 1:1 2:1 3:-1 4:-1 6:-0.764706 7:-0.666667 8:-1 9:0.6 
-2 1:-1 2:1 3:-1 4:-1 6:-0.647059 7:-1 8:-1 9:-1 
-2 1:-1 2:1 3:-1 4:-1 6:-0.529412 7:-1 8:-1 9:-1 
-2 1:-1 2:1 3:-1 4:-1 6:-0.882353 7:-1 8:-1 9:-1 
-0.3668129207773665 1:-1 2:-1 3:1 4:-1 6:-0.764706 7:-1 8:-1 9:0.6 
-0.3648979742478555 1:-1 2:-1 3:1 4:-1 6:-0.764706 7:-0.666667 8:-1 9:0.6 
-0.3702038453107678 1:1 2:-1 3:-1 4:1 6:-0.529412 7:-0.666667 8:-1 9:-0.2 
