svm_type c_svc
kernel_type rbf
gamma 0.0078125
nr_class 2
total_sv 129
rho -0.628964
label -1 1
nr_sv 72 57
SV
0.5 1:1 2:1 3:1 4:-1 5:-1 7:0.798165 8:1 10:1 11:-1 12:-1 13:-0.655172 14:-1 15:1 16:0.962264 17:1 18:-0.904097 19:0.0354693 20:0.84109 21:0.120401 22:0.120401 23:1 24:-1 25:-1 26:1 27:-1 28:-1 29:-1 
0.4548187307043505 1:-0.178082 2:1 3:-1 4:1 5:-1 7:-0.119266 8:-0.217391 9:0.2 10:-0.181818 11:-1 12:-1 13:-0.655172 14:-1 15:-0.142857 16:0.0566038 17:-0.230532 18:-0.916621 19:0.108307 20:-0.486678 21:-0.519718 22:-0.519718 23:-1 24:-1 25:1 26:1 27:-1 28:-1 29:1 
0.5 1:-0.232877 2:1 3:-1 4:1 5:-1 7:-0.174312 8:-0.286957 9:-0.1 10:0.0909091 11:-1 12:-1 13:-0.655172 14:-1 15:-0.209524 16:0.169811 17:-0.269679 18:-0.768344 19:-0.415678 20:0.0624658 21:-0.741391 22:-0.741391 23:-1 24:-1 25:1 26:1 27:-1 28:-1 29:1 
0.2738035884830591 1:-0.69863 2:-1 3:-1 4:1 5:-1 7:-0.761468 8:-0.73913 9:-0.5 10:-0.5 11:-1 12:-1 13:-0.862069 14:-0.714286 15:-0.761905 16:-0.471698 17:-0.800396 18:-0.476992 19:-0.735059 20:-0.451572 21:-0.957901 22:-0.957901 23:1 24:-1 25:-1 26:1 27:-1 28:-1 29:-1 
0.5 1:-0.69863 2:1 3:1 4:-1 5:-1 7:-0.761468 8:-0.773913 9:-0.6 10:-0.590909 11:-1 12:-1 13:0.0344828 14:-1 15:-0.780952 16:-0.584906 17:-0.826628 18:-0.416549 19:-0.767912 20:-0.460625 21:-0.966432 22:-0.966432 23:-1 24:-1 25:-1 26:1 27:-1 28:-1 29:1 
0.5 1:-0.69863 2:1 3:-1 4:1 5:-1 7:-0.816514 8:-0.773913 9:-0.5 10:-0.590909 11:-1 12:-1 13:0.0344828 14:-1 15:-0.809524 16:-0.54717 17:-0.842651 18:-0.50377 19:-0.718424 20:-0.614782 21:-0.96367 22:-0.96367 23:-1 24:-1 25:-1 26:1 27:-1 28:-1 29:1 
0.01307394115482907 1:-0.753425 2:-1 3:-1 4:1 5:-1 7:-0.761468 8:-0.791304 9:-0.3 10:-0.590909 11:-1 12:-1 13:-1 14:-0.428571 15:-0.790476 16:-0.471698 17:-0.821355 18:-0.595354 19:-0.64856 20:-0.664249 21:-0.951372 22:-0.951372 23:1 24:-1 25:-1 26:1 27:-1 28:-1 29:-1 
0.5 1:-0.890411 2:-1 3:-1 4:1 5:-1 7:-0.889908 8:-0.930435 9:-0.5 10:-0.818182 11:-1 12:-1 13:-1 14:-0.142857 15:-0.933333 16:-0.735849 17:-0.944326 18:-0.357492 19:-0.794943 20:-0.8282 21:-0.987358 22:-0.987358 23:1 24:-1 25:-1 26:1 27:-1 28:-1 29:-1 
0.5 1:-0.835616 2:1 3:-1 4:1 5:-1 7:-0.889908 8:-0.791304 9:-0.8 10:-0.636364 11:-1 12:-1 13:-0.724138 14:-0.714286 15:-0.857143 16:-0.698113 17:-0.891131 18:-0.162878 19:-0.860271 20:-0.455247 21:-0.984938 22:-0.984938 23:-1 24:-1 25:-1 26:-1 27:1 28:-1 29:-1 
0.5 1:-0.808219 2:1 3:-1 4:1 5:-1 7:-0.889908 8:-0.791304 9:-0.8 10:-0.636364 11:-1 12:-1 13:-0.724138 14:-0.714286 15:-0.857143 16:-0.698113 17:-0.891131 18:-0.162878 19:-0.860271 20:-0.455247 21:-0.984938 22:-0.984938 23:-1 24:-1 25:-1 26:-1 27:1 28:-1 29:-1 
0.5 1:-0.808219 2:1 3:-1 4:1 5:-1 7:-0.889908 8:-0.791304 9:-0.8 10:-0.636364 11:-1 12:-1 13:-0.724138 14:-0.714286 15:-0.857143 16:-0.698113 17:-0.891131 18:-0.162878 19:-0.860271 20:-0.455247 21:-0.984938 22:-0.984938 23:-1 24:-1 25:-1 26:-1 27:1 28:-1 29:-1 
0.5 1:-0.890411 2:1 3:-1 4:1 5:-1 7:-0.908257 8:-0.826087 9:-0.8 10:-0.681818 11:-1 12:-1 13:-0.724138 14:-0.714286 15:-0.885714 16:-0.735849 17:-0.913723 18:-0.125809 19:-0.869798 20:-0.532159 21:-0.988369 22:-0.988369 23:-1 24:-1 25:-1 26:-1 27:1 28:-1 29:-1 
0.5 1:1 2:1 3:1 4:-1 5:-1 7:0.798165 8:1 10:1 11:-0.75 12:-1 13:-0.655172 14:-1 15:1 16:0.962264 17:1 18:-0.904097 19:0.0354693 20:0.84109 21:0.120401 22:0.120401 23:1 24:-1 25:-1 26:1 27:-1 28:-1 29:-1 
0.5 1:-0.178082 2:1 3:-1 4:1 5:-1 7:-0.119266 8:-0.217391 9:0.2 10:-0.181818 11:-0.75 12:-1 13:-0.655172 14:-1 15:-0.142857 16:0.0566038 17:-0.230532 18:-0.916621 19:0.108307 20:-0.486678 21:-0.519718 22:-0.519718 23:-1 24:-1 25:1 26:1 27:-1 28:-1 29:1 
0.5 1:-0.232877 2:1 3:1 4:-1 5:-1 7:-0.137615 8:-0.356522 9:0.2 10:-0.272727 11:-0.75 12:-0.6 13:-0.655172 14:-1 15:-0.228571 16:-0.0188679 17:-0.315699 18:-0.900547 19:0.0163797 20:-0.509696 21:-0.601882 22:-0.601882 23:-1 24:-1 25:1 26:1 27:-1 28:-1 29:1 
0.2698368063890173 1:-0.890411 2:-1 3:-1 4:1 5:-1 7:-0.889908 8:-0.930435 9:-0.5 10:-0.818182 11:-0.75 12:-1 13:-1 14:-0.142857 15:-0.933333 16:-0.735849 17:-0.944326 18:-0.357492 19:-0.794943 20:-0.8282 21:-0.987358 22:-0.987358 23:1 24:-1 25:-1 26:1 27:-1 28:-1 29:-1 
0.4454974051594518 1:0.972603 2:1 3:1 4:-1 5:-1 7:1 8:0.669565 9:1 10:0.590909 11:-0.5 12:-1 13:-0.862069 14:-1 15:0.92381 16:1 17:0.934039 18:-1 19:1 20:-0.176456 21:1 22:1 23:-1 24:-1 25:1 26:1 27:-1 28:-1 29:1 
0.2301966424997024 1:0.534247 2:1 3:1 4:-1 5:-1 7:0.577982 8:0.304348 9:0.6 10:0.136364 11:-0.5 12:-0.2 13:-0.862069 14:-1 15:0.504762 16:0.471698 17:0.42387 18:-0.985244 19:0.758297 20:-0.355168 21:0.318773 22:0.318773 23:-1 24:-1 25:1 26:1 27:-1 28:-1 29:1 
0.5 1:-0.39726 2:-1 3:1 4:-1 5:-1 7:-0.321101 8:-0.530435 9:-0.1 10:-0.454545 11:-1 12:-1 13:-0.448276 14:-1 15:-0.419048 16:-0.283019 17:-0.514177 18:-0.835308 19:-0.248003 20:-0.539195 21:-0.777873 22:-0.777873 23:-1 24:-1 25:-1 26:-1 27:1 28:-1 29:-1 
0.5 1:-0.616438 2:-1 3:1 4:-1 5:-1 7:-0.431193 8:-0.634783 9:-0.2 10:-0.5 11:-1 12:-1 13:-0.448276 14:-1 15:-0.533333 16:-0.358491 17:-0.614525 18:-0.762053 19:-0.428154 20:-0.511694 21:-0.858037 22:-0.858037 23:-1 24:-1 25:-1 26:-1 27:1 28:-1 29:-1 
0.378569143604213 1:-0.643836 2:1 3:-1 4:1 5:-1 7:-0.577982 8:-0.669565 9:-0.4 10:-0.727273 11:-1 12:-1 13:-0.655172 14:-1 15:-0.628571 16:-0.622642 17:-0.726627 18:-0.813472 19:-0.310881 20:-0.794236 21:-0.875213 22:-0.875213 23:-1 24:-1 25:-1 26:-1 27:1 28:-1 29:-1 
0.4400250626892419 1:-0.780822 2:1 3:-1 4:-1 5:1 7:-0.761468 8:-0.791304 9:-0.7 10:-0.772727 11:-1 12:-1 13:-0.655172 14:-1 15:-0.790476 16:-0.773585 17:-0.858131 18:-0.53769 19:-0.695136 20:-0.697309 21:-0.964203 22:-0.964203 23:-1 24:-1 25:-1 26:-1 27:1 28:-1 29:-1 
0.5 1:-0.589041 2:-1 3:1 4:-1 5:-1 7:-0.211009 8:-0.165217 9:-0.2 10:-0.181818 11:-1 12:-1 13:0.586207 14:-1 15:-0.161905 16:-0.0943396 17:-0.273884 18:-0.860282 19:-0.162834 20:-0.306962 21:-0.64724 22:-0.64724 23:-1 24:-1 25:-1 26:-1 27:1 28:-1 29:-1 
0.5 1:-0.589041 2:-1 3:1 4:-1 5:-1 7:-0.192661 8:-0.165217 9:-0.1 10:-0.181818 11:-1 12:-1 13:0.586207 14:-1 15:-0.152381 16:-0.0566038 17:-0.258888 18:-0.881453 19:-0.0763353 20:-0.373154 21:-0.607193 22:-0.607193 23:-1 24:-1 25:-1 26:-1 27:1 28:-1 29:-1 
0.5 1:-0.69863 2:1 3:-1 4:-1 5:1 7:-0.633028 8:-0.669565 10:-0.545455 11:-0.5 12:-1 13:0.517241 14:-1 15:-0.657143 16:-0.320755 17:-0.704669 18:-0.813472 19:-0.310881 20:-0.761659 21:-0.866869 22:-0.866869 23:-1 24:-1 25:-1 26:1 27:-1 28:-1 29:1 
0.5 1:-0.69863 2:1 3:-1 4:-1 5:1 7:-0.614679 8:-0.669565 9:0.1 10:-0.545455 11:-0.5 12:-0.2 13:0.517241 14:-1 15:-0.647619 16:-0.283019 17:-0.692955 18:-0.834961 19:-0.249078 20:-0.78454 21:-0.851314 22:-0.851314 23:-1 24:-1 25:-1 26:1 27:-1 28:-1 29:1 
0.0445189609257409 1:-0.890411 2:-1 3:-1 4:1 5:-1 7:-0.889908 8:-0.930435 9:-0.5 10:-0.818182 11:-0.5 12:-1 13:-1 14:-0.142857 15:-0.933333 16:-0.735849 17:-0.944326 18:-0.357492 19:-0.794943 20:-0.8282 21:-0.987358 22:-0.987358 23:1 24:-1 25:-1 26:1 27:-1 28:-1 29:-1 
0.5 1:-0.780822 2:-1 3:1 4:-1 5:-1 7:-0.724771 8:-0.773913 9:-0.5 10:-0.636364 11:-1 12:-1 13:-0.724138 14:-0.428571 15:-0.761905 16:-0.584906 17:-0.813319 18:-0.55465 19:-0.682434 20:-0.591584 21:-0.95376 22:-0.95376 23:-1 24:-1 25:-1 26:-1 27:1 28:-1 29:-1 
0.5 1:-0.780822 2:-1 3:1 4:-1 5:-1 7:-0.724771 8:-0.773913 9:-0.5 10:-0.636364 11:-1 12:-1 13:-0.724138 14:-0.428571 15:-0.761905 16:-0.584906 17:-0.813319 18:-0.55465 19:-0.682434 20:-0.591584 21:-0.95376 22:-0.95376 23:-1 24:-1 25:-1 26:-1 27:1 28:-1 29:-1 
0.2826377442736702 1:-0.972603 2:-1 3:1 4:-1 5:-1 7:-0.614679 8:-0.773913 9:-0.2 10:-0.863636 11:-1 12:-1 13:1 14:-0.142857 15:-0.704762 16:-0.660377 17:-0.784702 18:-0.892304 19:-0.0256003 20:-0.992426 21:-0.858402 22:-0.858402 23:-1 24:-1 25:-1 26:-1 27:1 28:-1 29:-1 
0.4721546567101225 1:-0.972603 2:-1 3:1 4:-1 5:-1 7:-0.614679 8:-0.773913 9:-0.2 10:-0.863636 11:-1 12:-1 13:1 14:-0.142857 15:-0.704762 16:-0.660377 17:-0.784702 18:-0.892304 19:-0.0256003 20:-0.992426 21:-0.858402 22:-0.858402 23:-1 24:-1 25:-1 26:-1 27:1 28:-1 29:-1 
0.2958486644195737 1:-0.835616 2:1 3:-1 4:1 5:-1 7:-0.577982 8:-0.634783 9:-0.6 10:-0.454545 11:-1 12:-1 13:-0.310345 14:-0.714286 15:-0.609524 16:-0.471698 17:-0.688617 18:-0.521215 19:-0.70678 20:-0.184045 21:-0.932713 22:-0.932713 23:-1 24:-1 25:-1 26:-1 27:1 28:-1 29:-1 
0.3633110167396672 1:-0.945205 2:-1 3:1 4:-1 5:-1 7:-0.889908 8:-0.878261 9:-0.7 10:-0.772727 11:-0.5 12:-1 13:-0.310345 14:-0.428571 15:-0.904762 16:-0.773585 17:-0.929707 18:-0.275584 19:-0.826132 20:-0.715812 21:-0.987261 22:-0.987261 23:-1 24:-1 25:1 26:-1 27:-1 28:1 29:-1 
0.5 1:-0.945205 2:-1 3:1 4:-1 5:-1 7:-0.651376 8:-0.721739 9:-0.3 10:-0.545455 11:-1 12:-1 13:0.310345 14:-0.714286 15:-0.695238 16:-0.433962 17:-0.746871 18:-0.66455 19:-0.576904 20:-0.584863 21:-0.923918 22:-0.923918 23:-1 24:-1 25:-1 26:-1 27:1 28:-1 29:-1 
0.5 1:-0.945205 2:-1 3:1 4:-1 5:-1 7:-0.633028 8:-0.721739 9:-0.3 10:-0.545455 11:-1 12:-1 13:0.310345 14:-0.714286 15:-0.685714 16:-0.433962 17:-0.739784 18:-0.66455 19:-0.576904 20:-0.569144 21:-0.922117 22:-0.922117 23:-1 24:-1 25:-1 26:-1 27:1 28:-1 29:-1 
0.196346935834957 1:-0.972603 2:-1 3:1 4:-1 5:-1 7:-0.926606 8:-0.982609 9:-0.8 10:-1 11:-0.5 12:-1 13:-0.37931 14:-0.714286 15:-0.980952 16:-1 17:-0.997661 18:-0.283971 19:-0.823221 20:-1 21:-0.99642 22:-0.99642 23:-1 24:-1 25:1 26:-1 27:-1 28:1 29:-1 
0.276824511097711 1:0.0410959 2:1 3:1 4:-1 5:-1 7:0.229358 8:-0.252174 9:-0.1 10:-0.0909091 11:-1 12:-1 13:-0.793103 14:-0.714286 15:0.0190476 16:0.0188679 17:-0.100549 18:-0.832141 19:-0.257723 20:0.0451298 21:-0.612874 22:-0.612874 23:-1 24:-1 25:-1 26:-1 27:1 28:-1 29:-1 
0.5 1:-0.0958904 2:1 3:1 4:-1 5:-1 7:0.0642202 8:-0.33913 9:-0.2 10:-0.136364 11:-1 12:-1 13:-0.793103 14:-0.714286 15:-0.114286 16:-0.0566038 17:-0.227277 18:-0.784819 19:-0.380745 20:0.0661111 21:-0.713411 22:-0.713411 23:-1 24:-1 25:-1 26:-1 27:1 28:-1 29:-1 
0.5 1:-0.534247 2:1 3:1 4:-1 5:-1 7:-0.155963 8:-0.234783 9:-0.6 10:0.136364 11:-1 12:-1 13:-0.517241 14:-1 15:-0.171429 16:0.0188679 17:-0.261261 18:-0.53769 19:-0.695136 20:1 21:-0.845874 22:-0.845874 23:-1 24:-1 25:-1 26:-1 27:1 28:-1 29:-1 
0.5 1:-0.589041 2:1 3:1 4:-1 5:-1 7:-0.376147 8:-0.373913 9:-0.6 10:-0.0454545 11:-1 12:-1 13:-0.517241 14:-1 15:-0.361905 16:-0.132075 17:-0.444191 18:-0.521215 19:-0.70678 20:0.530882 21:-0.885602 22:-0.885602 23:-1 24:-1 25:-1 26:-1 27:1 28:-1 29:-1 
0.2347168478523492 1:-0.671233 2:1 3:1 4:-1 5:-1 7:-0.633028 8:-0.617391 9:-0.6 10:-0.363636 11:-1 12:-1 13:0.0344828 14:-0.714286 15:-0.628571 16:-0.396226 17:-0.692166 18:-0.467987 19:-0.740343 20:-0.0944977 21:-0.93944 22:-0.93944 23:-1 24:-1 25:-1 26:-1 27:1 28:-1 29:-1 
0.5 1:-0.671233 2:1 3:1 4:-1 5:-1 7:-0.633028 8:-0.617391 9:-0.6 10:-0.318182 11:-1 12:-1 13:0.0344828 14:-0.714286 15:-0.628571 16:-0.358491 17:-0.687276 18:-0.429967 19:-0.761119 20:-0.00661622 21:-0.942364 22:-0.942364 23:-1 24:-1 25:-1 26:-1 27:1 28:-1 29:-1 
0.2526573468321693 1:-0.808219 2:1 3:-1 4:1 5:-1 7:-0.46789 8:-0.478261 9:0.1 10:-0.363636 11:-1 12:-1 13:-0.655172 14:-0.142857 15:-0.466667 16:-0.132075 17:-0.529566 18:-0.867195 19:-0.136219 20:-0.645804 21:-0.755456 22:-0.755456 23:-1 24:-1 25:-1 26:-1 27:1 28:-1 29:-1 
0.5 1:-0.616438 2:-1 3:-1 4:-1 5:1 7:0.00917431 8:-0.356522 9:-0.4 10:-0.0909091 11:-1 12:-1 13:-0.724138 14:-1 15:-0.152381 16:-0.0943396 17:-0.266051 18:-0.683021 19:-0.553888 20:0.408139 21:-0.792928 22:-0.792928 23:-1 24:-1 25:-1 26:-1 27:1 28:-1 29:-1 
0.5 1:-0.863014 2:-1 3:-1 4:-1 5:1 7:-0.614679 8:-0.721739 9:-0.5 10:-0.545455 11:-1 12:-1 13:-0.724138 14:-0.428571 15:-0.67619 16:-0.509434 17:-0.742567 18:-0.552106 19:-0.684388 20:-0.392163 21:-0.939614 22:-0.939614 23:-1 24:-1 25:-1 26:-1 27:1 28:-1 29:-1 
0.5 1:-0.890411 2:-1 3:-1 4:1 5:-1 7:-0.87156 8:-0.895652 9:-0.7 10:-0.818182 11:-0.25 12:-0.2 13:-0.931034 14:-0.714286 15:-0.904762 16:-0.811321 17:-0.933727 18:-0.307037 19:-0.814904 20:-0.75402 21:-0.98707 22:-0.98707 23:-1 24:-1 25:1 26:1 27:1 28:1 29:-1 
0.20364746715835 1:-0.835616 2:-1 3:-1 4:1 5:-1 7:-0.853211 8:-0.843478 9:-0.7 10:-0.681818 11:-0.25 12:-0.6 13:-0.931034 14:-0.714286 15:-0.866667 16:-0.698113 17:-0.897398 18:-0.227195 19:-0.841852 20:-0.540303 21:-0.984162 22:-0.984162 23:-1 24:-1 25:1 26:1 27:1 28:1 29:-1 
0.5 1:-0.945205 2:1 3:-1 4:1 5:-1 7:-0.651376 8:-0.652174 9:-0.5 10:-0.363636 11:-1 12:-1 13:-0.724138 14:-0.428571 15:-0.657143 16:-0.358491 17:-0.709102 18:-0.501651 19:-0.719794 20:-0.208866 21:-0.9389 22:-0.9389 23:-1 24:-1 25:-1 26:-1 27:1 28:-1 29:-1 
0.5 1:-0.972603 2:1 3:1 4:-1 5:-1 7:-0.724771 8:-0.634783 9:-0.7 10:-0.409091 11:-1 12:-1 13:-0.724138 14:-0.428571 15:-0.685714 16:-0.471698 17:-0.744506 18:-0.376233 19:-0.786834 20:-0.112752 21:-0.955917 22:-0.955917 23:-1 24:-1 25:-1 26:-1 27:1 28:-1 29:-1 
0.2309504018042837 1:-0.808219 2:1 3:-1 4:-1 5:1 7:-0.761468 8:-0.686957 9:-0.3 10:-0.590909 11:-1 12:-1 13:-0.310345 14:1 15:-0.733333 16:-0.471698 17:-0.779437 18:-0.736891 19:-0.473898 20:-0.761776 21:-0.917901 22:-0.917901 23:-1 24:-1 25:-1 26:-1 27:1 28:-1 29:-1 
0.3825877509296921 1:-0.589041 2:1 3:-1 4:-1 5:1 7:-0.357798 8:-0.2 9:-0.3 10:0.136364 12:-0.2 13:-0.724138 14:-1 15:-0.257143 16:0.132075 17:-0.316481 18:-0.726826 19:-0.490533 20:0.137476 21:-0.783632 22:-0.783632 23:1 24:-1 25:-1 26:1 27:-1 28:-1 29:-1 
0.01776529964320372 1:-0.69863 2:-1 3:-1 4:1 5:-1 7:-0.761468 8:-0.73913 9:-0.5 10:-0.5 12:-0.6 13:-0.862069 14:-0.714286 15:-0.761905 16:-0.471698 17:-0.800396 18:-0.476992 19:-0.735059 20:-0.451572 21:-0.957901 22:-0.957901 23:1 24:-1 25:-1 26:1 27:-1 28:-1 29:-1 
0.1394841621382816 1:-0.808219 2:-1 3:1 4:-1 5:-1 7:-0.926606 8:-0.878261 9:-0.8 10:-0.636364 11:-1 12:-1 13:-0.862069 14:-0.714286 15:-0.92381 16:-0.698113 17:-0.934996 18:0.269597 19:-0.939662 20:-0.367039 21:-0.995385 22:-0.995385 23:1 24:-1 25:-1 26:1 27:-1 28:-1 29:-1 
0.1146626607976719 1:-0.69863 2:1 3:-1 4:-1 5:1 7:-0.743119 8:-0.73913 9:-0.2 10:-0.636364 11:0.25 12:1 13:0.517241 14:-1 15:-0.752381 16:-0.471698 17:-0.79341 18:-0.750134 19:-0.45061 20:-0.806034 21:-0.919055 22:-0.919055 23:1 24:-1 25:-1 26:1 27:-1 28:-1 29:-1 
0.5 1:-0.863014 2:-1 3:-1 4:1 5:-1 7:-0.853211 8:-0.843478 9:-0.4 10:-0.772727 11:-1 12:-1 13:-0.931034 14:-0.714286 15:-0.866667 16:-0.660377 17:-0.893561 18:-0.641188 19:-0.603439 20:-0.889576 21:-0.963451 22:-0.963451 23:1 24:-1 25:-1 26:1 27:-1 28:-1 29:-1 
0.105304005311945 1:-0.835616 2:-1 3:-1 4:1 5:-1 7:-0.853211 8:-0.843478 9:-0.7 10:-0.681818 12:-0.6 13:-0.931034 14:-0.714286 15:-0.866667 16:-0.698113 17:-0.897398 18:-0.227195 19:-0.841852 20:-0.540303 21:-0.984162 22:-0.984162 23:1 24:-1 25:-1 26:1 27:-1 28:-1 29:-1 
0.09976930703044101 1:-0.753425 2:-1 3:1 4:-1 5:-1 7:-0.504587 8:-0.426087 9:-0.5 10:0.0454545 11:-1 12:-1 13:1 14:-0.714286 15:-0.457143 16:-0.0188679 17:-0.506981 18:-0.506521 19:-0.716633 20:0.388232 21:-0.900341 22:-0.900341 23:1 24:-1 25:-1 26:1 27:-1 28:-1 29:-1 
0.3826487328254941 1:-0.753425 2:-1 3:1 4:-1 5:-1 7:-0.504587 8:-0.426087 9:-0.5 10:0.0454545 11:0.25 12:-0.2 13:1 14:-0.714286 15:-0.457143 16:-0.0188679 17:-0.506981 18:-0.506521 19:-0.716633 20:0.388232 21:-0.900341 22:-0.900341 23:1 24:-1 25:-1 26:1 27:-1 28:-1 29:-1 
0.3789800275900284 1:-0.808219 2:1 3:-1 4:-1 5:1 7:-0.761468 8:-0.686957 9:-0.3 10:-0.590909 11:-1 12:-1 13:-0.310345 14:1 15:-0.733333 16:-0.471698 17:-0.779437 18:-0.736891 19:-0.473898 20:-0.761776 21:-0.917901 22:-0.917901 23:1 24:-1 25:-1 26:1 27:-1 28:-1 29:-1 
0.2858004117032872 1:0.726027 2:1 3:1 4:-1 5:-1 7:0.834862 8:0.408696 9:1 10:0.454545 11:0.75 12:-1 13:-0.931034 14:-0.142857 15:0.695238 16:0.886792 17:0.689166 18:-0.990444 19:0.836895 20:-0.231472 21:0.619223 22:0.619223 23:1 24:-1 25:-1 26:1 27:-1 28:-1 29:-1 
0.1119662252983503 1:0.315068 2:1 3:1 4:-1 5:-1 7:0.321101 8:0.026087 9:0.5 10:0.272727 11:1 12:-1 13:-0.517241 14:-0.142857 15:0.219048 16:0.54717 17:0.176187 18:-0.925164 19:0.163522 20:-0.142756 21:-0.251926 22:-0.251926 23:1 24:-1 25:-1 26:1 27:-1 28:-1 29:-1 
0.101820953908674 1:-0.342466 2:1 3:1 4:-1 5:-1 7:-0.431193 8:-0.321739 9:-0.4 10:-0.227273 11:0.5 12:0.6 13:-1 14:-1 15:-0.361905 16:-0.207547 17:-0.456401 18:-0.756722 19:-0.438384 20:-0.220788 21:-0.809706 22:-0.809706 23:1 24:-1 25:-1 26:1 27:-1 28:-1 29:-1 
0.5 1:-0.589041 2:1 3:-1 4:-1 5:1 7:-0.357798 8:-0.2 9:-0.3 10:0.136364 11:0.25 12:-0.2 13:-0.724138 14:-1 15:-0.257143 16:0.132075 17:-0.316481 18:-0.726826 19:-0.490533 20:0.137476 21:-0.783632 22:-0.783632 23:1 24:-1 25:-1 26:1 27:-1 28:-1 29:-1 
0.5 1:-0.69863 2:-1 3:-1 4:1 5:-1 7:-0.761468 8:-0.73913 9:-0.5 10:-0.5 11:0.25 12:-0.6 13:-0.862069 14:-0.714286 15:-0.761905 16:-0.471698 17:-0.800396 18:-0.476992 19:-0.735059 20:-0.451572 21:-0.957901 22:-0.957901 23:1 24:-1 25:-1 26:1 27:-1 28:-1 29:-1 
0.34720888893207 1:-0.835616 2:-1 3:1 4:-1 5:-1 7:-0.816514 8:-0.773913 9:-0.7 10:-0.5 11:0.25 12:-1 13:-0.862069 14:-1 15:-0.809524 16:-0.54717 17:-0.842651 18:-0.164574 19:-0.859817 20:-0.229702 21:-0.979063 22:-0.979063 23:1 24:-1 25:-1 26:1 27:-1 28:-1 29:-1 
0.5 1:-0.69863 2:1 3:-1 4:-1 5:1 7:-0.743119 8:-0.73913 9:-0.2 10:-0.636364 11:0.5 12:1 13:0.517241 14:-1 15:-0.752381 16:-0.471698 17:-0.79341 18:-0.750134 19:-0.45061 20:-0.806034 21:-0.919055 22:-0.919055 23:1 24:-1 25:-1 26:1 27:-1 28:-1 29:-1 
0.5 1:-0.808219 2:1 3:1 4:-1 5:-1 7:-0.779817 8:-0.773913 9:-0.5 10:-0.545455 11:0.5 12:0.6 13:-1 14:-1 15:-0.790476 16:-0.509434 17:-0.82514 18:-0.452891 19:-0.748878 20:-0.4999 21:-0.963959 22:-0.963959 23:1 24:-1 25:-1 26:1 27:-1 28:-1 29:-1 
0.01727383532748287 1:-0.863014 2:-1 3:-1 4:-1 5:1 7:-0.614679 8:-0.721739 9:-0.5 10:-0.545455 11:-0.75 12:-1 13:-0.724138 14:-0.428571 15:-0.67619 16:-0.509434 17:-0.742567 18:-0.552106 19:-0.684388 20:-0.392163 21:-0.939614 22:-0.939614 23:1 24:-1 25:-1 26:1 27:-1 28:-1 29:-1 
0.3676746151788897 1:-0.863014 2:-1 3:-1 4:1 5:-1 7:-0.853211 8:-0.843478 9:-0.4 10:-0.772727 11:-0.75 12:-1 13:-0.931034 14:-0.714286 15:-0.866667 16:-0.660377 17:-0.893561 18:-0.641188 19:-0.603439 20:-0.889576 21:-0.963451 22:-0.963451 23:1 24:-1 25:-1 26:1 27:-1 28:-1 29:-1 
0.5 1:-0.835616 2:-1 3:-1 4:1 5:-1 7:-0.853211 8:-0.843478 9:-0.7 10:-0.681818 11:0.25 12:-0.6 13:-0.931034 14:-0.714286 15:-0.866667 16:-0.698113 17:-0.897398 18:-0.227195 19:-0.841852 20:-0.540303 21:-0.984162 22:-0.984162 23:1 24:-1 25:-1 26:1 27:-1 28:-1 29:-1 
0.5 1:-0.753425 2:-1 3:1 4:-1 5:-1 7:-0.504587 8:-0.426087 9:-0.5 10:0.0454545 11:0.25 12:-0.6 13:1 14:-0.714286 15:-0.457143 16:-0.0188679 17:-0.506981 18:-0.506521 19:-0.716633 20:0.388232 21:-0.900341 22:-0.900341 23:1 24:-1 25:-1 26:1 27:-1 28:-1 29:-1 
0.5 1:-0.753425 2:-1 3:1 4:-1 5:-1 7:-0.504587 8:-0.426087 9:-0.5 10:0.0454545 11:0.5 12:-0.2 13:1 14:-0.714286 15:-0.457143 16:-0.0188679 17:-0.506981 18:-0.506521 19:-0.716633 20:0.388232 21:-0.900341 22:-0.900341 23:1 24:-1 25:-1 26:1 27:-1 28:-1 29:-1 
-0.5 1:-0.0958904 2:1 3:1 4:-1 5:-1 7:-0.211009 8:-0.026087 9:-0.1 11:-1 12:-1 13:-0.724138 14:-1 15:-0.0857143 16:0.0943396 17:-0.175125 18:-0.87406 19:-0.108273 20:-0.244231 21:-0.579634 22:-0.579634 23:-1 24:1 25:-1 26:1 27:-1 28:-1 29:-1 
-0.5 1:-0.479452 2:1 3:-1 4:1 5:-1 7:-0.504587 8:-0.530435 9:-0.4 10:-0.136364 11:-1 12:-1 13:0.310345 14:-1 15:-0.514286 16:-0.132075 17:-0.568372 18:-0.568692 19:-0.671319 20:0.0495433 21:-0.901076 22:-0.901076 23:-1 24:1 25:-1 26:1 27:-1 28:-1 29:-1 
-0.5 1:-0.753425 2:1 3:1 4:-1 5:-1 7:-1 8:-0.773913 9:-0.9 10:-0.545455 11:-1 12:-1 13:0.517241 14:-1 15:-0.904762 16:-0.660377 17:-0.919175 18:0.208542 19:-0.931601 20:-0.305334 21:-0.993492 22:-0.993492 23:-1 24:1 25:-1 26:1 27:-1 28:-1 29:-1 
-0.5 1:-0.863014 2:1 3:1 4:-1 5:-1 7:-0.816514 8:-0.86087 9:-0.3 10:-0.863636 11:-1 12:-1 13:-0.37931 14:-0.714286 15:-0.857143 16:-0.698113 17:-0.891131 18:-0.768344 19:-0.415678 20:-0.997862 21:-0.946727 22:-0.946727 23:-1 24:1 25:-1 26:1 27:-1 28:-1 29:-1 
-0.5 1:-0.917808 2:1 3:-1 4:-1 5:1 7:-0.834862 8:-0.895652 9:-0.4 10:-0.818182 11:-1 12:-1 13:-0.724138 14:-0.142857 15:-0.885714 16:-0.698113 17:-0.90993 18:-0.576132 19:-0.665194 20:-0.875499 21:-0.972165 22:-0.972165 23:-1 24:1 25:-1 26:1 27:-1 28:-1 29:-1 
-0.5 1:-0.863014 2:-1 3:-1 4:1 5:-1 7:-0.816514 8:-0.808696 9:-0.5 10:-0.681818 11:-1 12:-1 13:-0.931034 14:-0.714286 15:-0.828571 16:-0.622642 17:-0.863813 18:-0.53769 19:-0.695136 20:-0.713468 21:-0.965329 22:-0.965329 23:-1 24:1 25:-1 26:1 27:-1 28:-1 29:-1 
-0.5 1:-0.890411 2:-1 3:-1 4:1 5:-1 7:-0.816514 8:-0.808696 9:-0.5 10:-0.681818 11:-1 12:-1 13:-0.931034 14:-0.714286 15:-0.828571 16:-0.622642 17:-0.863813 18:-0.53769 19:-0.695136 20:-0.713468 21:-0.965329 22:-0.965329 23:-1 24:1 25:-1 26:1 27:-1 28:-1 29:-1 
-0.5 1:-0.835616 2:-1 3:-1 4:1 5:-1 7:-0.87156 8:-0.843478 9:-0.7 10:-0.681818 11:-1 12:-1 13:-0.931034 14:-0.714286 15:-0.87619 16:-0.698113 17:-0.903664 18:-0.227195 19:-0.841852 20:-0.567718 21:-0.98497 22:-0.98497 23:-1 24:1 25:-1 26:1 27:-1 28:-1 29:-1 
-0.09994599391919098 1:-0.0958904 2:1 3:1 4:-1 5:-1 7:-0.211009 8:-0.026087 9:-0.1 11:-0.75 12:-1 13:-0.724138 14:-1 15:-0.0857143 16:0.0943396 17:-0.175125 18:-0.87406 19:-0.108273 20:-0.244231 21:-0.579634 22:-0.579634 23:-1 24:1 25:-1 26:1 27:-1 28:-1 29:-1 
-0.5 1:-0.69863 2:1 3:-1 4:1 5:-1 7:-0.46789 8:-0.478261 9:-0.3 10:-0.181818 11:-0.75 12:-0.6 13:0.517241 14:-0.714286 15:-0.466667 16:-0.132075 17:-0.529566 18:-0.686937 19:-0.548753 20:-0.162844 21:-0.861453 22:-0.861453 23:-1 24:1 25:-1 26:1 27:-1 28:-1 29:-1 
-0.5 1:-0.753425 2:1 3:-1 4:1 5:-1 7:-0.577982 8:-0.530435 9:-0.5 10:-0.227273 11:-0.75 12:-0.6 13:0.517241 14:-0.714286 15:-0.552381 16:-0.245283 17:-0.61345 18:-0.556291 19:-0.681163 20:-0.0436576 21:-0.91266 22:-0.91266 23:-1 24:1 25:-1 26:1 27:-1 28:-1 29:-1 
-0.5 1:-0.863014 2:-1 3:-1 4:1 5:-1 7:-0.816514 8:-0.808696 9:-0.5 10:-0.681818 11:-0.75 12:-1 13:-0.931034 14:-0.714286 15:-0.828571 16:-0.622642 17:-0.863813 18:-0.53769 19:-0.695136 20:-0.713468 21:-0.965329 22:-0.965329 23:-1 24:1 25:-1 26:1 27:-1 28:-1 29:-1 
-0.5 1:-0.890411 2:-1 3:-1 4:1 5:-1 7:-0.87156 8:-0.895652 9:-0.7 10:-0.818182 11:-0.75 12:-0.6 13:-0.931034 14:-0.714286 15:-0.904762 16:-0.811321 17:-0.933727 18:-0.307037 19:-0.814904 20:-0.75402 21:-0.98707 22:-0.98707 23:-1 24:1 25:-1 26:1 27:-1 28:-1 29:-1 
-0.5 1:-0.835616 2:-1 3:-1 4:1 5:-1 7:-0.87156 8:-0.843478 9:-0.7 10:-0.681818 11:-0.75 12:-1 13:-0.931034 14:-0.714286 15:-0.87619 16:-0.698113 17:-0.903664 18:-0.227195 19:-0.841852 20:-0.567718 21:-0.98497 22:-0.98497 23:-1 24:1 25:-1 26:1 27:-1 28:-1 29:-1 
-0.5 1:1 2:1 3:1 4:-1 5:-1 7:0.798165 8:1 10:0.954545 11:-0.5 12:-1 13:-0.655172 14:-1 15:1 16:0.924528 17:0.991491 18:-0.90857 19:0.0604648 20:0.786732 21:0.140177 22:0.140177 23:-1 24:1 25:-1 26:1 27:-1 28:-1 29:-1 
-0.5 1:0.506849 2:1 3:1 4:-1 5:-1 7:0.321101 8:0.443478 10:0.590909 11:-0.5 12:-1 13:-0.655172 14:-1 15:0.447619 16:0.622642 17:0.402303 18:-0.881835 19:-0.0746281 20:0.383383 21:-0.281423 22:-0.281423 23:-1 24:1 25:-1 26:1 27:-1 28:-1 29:-1 
-0.5 1:-0.863014 2:1 3:-1 4:-1 5:1 7:-0.266055 8:-0.443478 9:-0.1 10:-0.318182 11:-0.5 12:-1 13:-0.655172 14:0.142857 15:-0.342857 16:-0.169811 17:-0.43482 18:-0.826007 19:-0.275949 20:-0.400736 21:-0.753792 22:-0.753792 23:-1 24:1 25:-1 26:1 27:-1 28:-1 29:-1 
-0.5 1:-0.972603 2:1 3:-1 4:-1 5:1 7:-0.522936 8:-0.686957 9:-0.2 10:-0.636364 11:-0.5 12:-1 13:-0.655172 14:-0.142857 15:-0.609524 16:-0.471698 17:-0.688617 18:-0.799796 19:-0.345813 20:-0.711929 21:-0.867117 22:-0.867117 23:-1 24:1 25:-1 26:1 27:-1 28:-1 29:-1 
-0.382589243081582 1:-0.863014 2:-1 3:1 4:-1 5:-1 7:-0.724771 8:-0.791304 9:-0.4 10:-0.727273 11:-0.5 12:-1 13:0.37931 14:-0.428571 15:-0.771429 16:-0.622642 17:-0.824617 18:-0.681849 19:-0.555407 20:-0.778487 21:-0.941154 22:-0.941154 23:-1 24:1 25:-1 26:1 27:-1 28:-1 29:-1 
-0.5 1:-0.753425 2:-1 3:1 4:-1 5:-1 7:-0.504587 8:-0.426087 9:-0.5 10:0.0454545 11:-0.5 12:-1 13:1 14:-0.714286 15:-0.457143 16:-0.0188679 17:-0.506981 18:-0.506521 19:-0.716633 20:0.388232 21:-0.900341 22:-0.900341 23:-1 24:1 25:-1 26:1 27:-1 28:-1 29:-1 
-0.5 1:-0.753425 2:-1 3:1 4:-1 5:-1 7:-0.504587 8:-0.426087 9:-0.5 10:0.0454545 11:-0.5 12:-1 13:1 14:-0.714286 15:-0.457143 16:-0.0188679 17:-0.506981 18:-0.506521 19:-0.716633 20:0.388232 21:-0.900341 22:-0.900341 23:-1 24:1 25:-1 26:1 27:-1 28:-1 29:-1 
-0.5 1:-0.835616 2:-1 3:1 4:-1 5:-1 7:-0.926606 8:-0.826087 9:-0.8 10:-0.681818 11:-1 12:-1 13:-0.931034 14:-0.714286 15:-0.895238 16:-0.735849 17:-0.919844 18:-0.125809 19:-0.869798 20:-0.561996 21:-0.989077 22:-0.989077 23:-1 24:1 25:-1 26:-1 27:1 28:-1 29:-1 
-0.5 1:-0.890411 2:-1 3:-1 4:1 5:-1 7:-0.87156 8:-0.895652 9:-0.7 10:-0.818182 11:-0.5 12:-0.2 13:-0.931034 14:-0.714286 15:-0.904762 16:-0.811321 17:-0.933727 18:-0.307037 19:-0.814904 20:-0.75402 21:-0.98707 22:-0.98707 23:-1 24:1 25:-1 26:-1 27:1 28:-1 29:-1 
-0.5 1:-0.945205 2:-1 3:-1 4:1 5:-1 7:-0.944954 8:-0.878261 9:-0.8 10:-0.772727 11:-1 12:-1 13:-0.931034 14:-0.714286 15:-0.933333 16:-0.811321 17:-0.951118 18:-0.107836 19:-0.874164 20:-0.703665 21:-0.992945 22:-0.992945 23:-1 24:1 25:-1 26:-1 27:1 28:-1 29:-1 
-0.5 1:-0.835616 2:-1 3:-1 4:1 5:-1 7:-0.853211 8:-0.843478 9:-0.7 10:-0.681818 11:-0.5 12:-1 13:-0.931034 14:-0.714286 15:-0.866667 16:-0.698113 17:-0.897398 18:-0.227195 19:-0.841852 20:-0.540303 21:-0.984162 22:-0.984162 23:-1 24:1 25:-1 26:-1 27:1 28:-1 29:-1 
-0.5 1:-0.917808 2:-1 3:-1 4:1 5:-1 7:-0.87156 8:-0.878261 9:-0.5 10:-0.772727 11:-0.5 12:-1 13:-0.931034 14:-0.714286 15:-0.895238 16:-0.698113 17:-0.916197 18:-0.485269 19:-0.730069 20:-0.821931 21:-0.978303 22:-0.978303 23:-1 24:1 25:-1 26:-1 27:1 28:-1 29:-1 
-0.5 1:0.452055 2:1 3:-1 4:1 5:-1 7:0.376147 8:0.321739 9:0.5 10:0.227273 11:-0.25 12:-0.6 13:-0.448276 14:-1 15:0.409524 16:0.509434 17:0.34456 18:-0.970165 19:0.562427 20:-0.300255 21:0.117232 22:0.117232 23:-1 24:1 25:-1 26:1 27:-1 28:-1 29:-1 
-0.5 1:0.479452 2:1 3:1 4:-1 5:-1 7:0.321101 8:0.130435 9:0.6 10:0.0454545 11:-0.25 12:0.2 13:-0.448276 14:-1 15:0.27619 16:0.396226 17:0.200478 18:-0.977093 19:0.647071 20:-0.446186 21:0.0539492 22:0.0539492 23:-1 24:1 25:-1 26:1 27:-1 28:-1 29:-1 
-0.5 1:-0.0958904 2:1 3:1 4:-1 5:-1 7:-0.00917431 8:-0.182609 9:-0.1 10:0.0909091 12:-1 13:-0.172414 14:-1 15:-0.0666667 16:0.169811 17:-0.145476 18:-0.809047 19:-0.322525 20:0.0882282 21:-0.659496 22:-0.659496 23:-1 24:1 25:-1 26:1 27:-1 28:-1 29:-1 
-0.5 1:-0.0958904 2:1 3:1 4:-1 5:-1 7:-0.211009 8:0.026087 9:-0.1 10:0.0454545 11:-0.25 12:-1 13:-1 14:-1 15:-0.0571429 16:0.132075 17:-0.14383 18:-0.876348 19:-0.0985999 20:-0.217634 21:-0.560494 22:-0.560494 23:-1 24:1 25:-1 26:-1 27:1 28:-1 29:-1 
-0.5 1:-0.342466 2:1 3:1 4:-1 5:-1 7:-0.431193 8:-0.269565 9:-0.4 10:-0.181818 11:-0.25 12:-0.2 13:-1 14:-1 15:-0.333333 16:-0.169811 17:-0.427132 18:-0.763329 19:-0.425658 20:-0.190215 21:-0.796463 22:-0.796463 23:-1 24:1 25:-1 26:-1 27:1 28:-1 29:-1 
-0.5 1:-0.287671 2:1 3:1 4:-1 5:-1 7:-0.376147 8:-0.165217 9:-0.6 11:-1 12:-1 13:-1 14:-1 15:-0.247619 16:-0.0943396 17:-0.344382 18:-0.639076 19:-0.60571 20:0.399401 21:-0.831544 22:-0.831544 23:-1 24:1 25:-1 26:-1 27:1 28:-1 29:-1 
-0.5 1:-0.342466 2:1 3:1 4:-1 5:-1 7:-0.431193 8:-0.321739 9:-0.4 10:-0.227273 11:-0.25 12:-0.6 13:-1 14:-1 15:-0.361905 16:-0.207547 17:-0.456401 18:-0.756722 19:-0.438384 20:-0.220788 21:-0.809706 22:-0.809706 23:-1 24:1 25:-1 26:-1 27:1 28:-1 29:-1 
-0.5 1:-0.150685 2:1 3:1 4:-1 5:-1 7:-0.0825688 8:-0.321739 9:0.2 10:-0.0454545 11:-1 12:-1 13:-0.241379 14:-0.714286 15:-0.180952 16:0.169811 17:-0.244839 18:-0.85685 19:-0.175518 20:-0.256559 21:-0.639136 22:-0.639136 23:-1 24:1 25:-1 26:1 27:-1 28:-1 29:-1 
-0.5 1:-0.178082 2:1 3:1 4:-1 5:-1 7:-0.137615 8:-0.356522 9:0.5 10:-0.136364 11:-1 12:-1 13:-0.241379 14:-0.714286 15:-0.228571 16:0.207547 17:-0.280804 18:-0.908048 19:0.0574962 20:-0.502207 21:-0.56782 22:-0.56782 23:-1 24:1 25:-1 26:1 27:-1 28:-1 29:-1 
-0.5 1:0.369863 2:-1 3:1 4:-1 5:-1 7:0.00917431 8:-0.147826 9:0.1 10:0.0454545 11:-0.25 12:-1 13:-0.793103 14:-0.142857 15:-0.0380952 16:0.207547 17:-0.114055 18:-0.871858 19:-0.11741 20:-0.16146 21:-0.55472 22:-0.55472 23:-1 24:1 25:-1 26:1 27:-1 28:-1 29:-1 
-0.5 1:-0.671233 2:1 3:-1 4:1 5:-1 7:-0.431193 8:-0.443478 9:-0.3 10:-0.0909091 11:-0.25 12:-0.2 13:0.172414 14:-0.714286 15:-0.428571 16:-0.0566038 17:-0.488064 18:-0.672238 19:-0.567557 20:-0.0329823 21:-0.855553 22:-0.855553 23:-1 24:1 25:-1 26:1 27:-1 28:-1 29:-1 
-0.5 1:-0.753425 2:1 3:-1 4:1 5:-1 7:-0.577982 8:-0.530435 9:-0.5 10:-0.227273 12:0.2 13:0.172414 14:-0.714286 15:-0.552381 16:-0.245283 17:-0.61345 18:-0.556291 19:-0.681163 20:-0.0436576 21:-0.91266 22:-0.91266 23:-1 24:1 25:-1 26:1 27:-1 28:-1 29:-1 
-0.5 1:-0.589041 2:1 3:-1 4:-1 5:1 7:-0.357798 8:-0.2 9:-0.3 10:0.136364 11:-0.25 12:-0.6 13:-0.724138 14:-1 15:-0.257143 16:0.132075 17:-0.316481 18:-0.726826 19:-0.490533 20:0.137476 21:-0.783632 22:-0.783632 23:-1 24:1 25:-1 26:1 27:-1 28:-1 29:-1 
-0.5 1:-0.671233 2:1 3:-1 4:-1 5:1 7:-0.486239 8:-0.373913 9:-0.3 10:-0.136364 11:-0.25 12:-0.6 13:-0.724138 14:-1 15:-0.419048 16:-0.0943396 17:-0.485377 18:-0.733746 19:-0.479191 20:-0.205324 21:-0.830307 22:-0.830307 23:-1 24:1 25:-1 26:1 27:-1 28:-1 29:-1 
-0.5 1:-0.69863 2:1 3:-1 4:-1 5:1 7:-0.724771 8:-0.73913 9:-0.1 10:-0.636364 11:-0.25 12:0.2 13:0.517241 14:-1 15:-0.742857 16:-0.433962 17:-0.782304 18:-0.780483 19:-0.390272 20:-0.829575 21:-0.907278 22:-0.907278 23:-1 24:1 25:-1 26:1 27:-1 28:-1 29:-1 
-0.5 1:-0.69863 2:1 3:-1 4:-1 5:1 7:-0.743119 8:-0.73913 9:-0.2 10:-0.636364 11:-0.25 12:-0.6 13:0.517241 14:-1 15:-0.752381 16:-0.471698 17:-0.79341 18:-0.750134 19:-0.45061 20:-0.806034 21:-0.919055 22:-0.919055 23:-1 24:1 25:-1 26:1 27:-1 28:-1 29:-1 
-0.5 1:-0.726027 2:1 3:1 4:-1 5:-1 7:-0.614679 8:-0.6 9:-0.4 10:-0.318182 11:-0.25 12:-0.2 13:-1 14:-1 15:-0.609524 16:-0.283019 17:-0.663159 18:-0.601761 19:-0.642738 20:-0.272321 21:-0.915397 22:-0.915397 23:-1 24:1 25:-1 26:-1 27:1 28:-1 29:-1 
-0.5 1:-0.863014 2:1 3:-1 4:1 5:-1 7:-0.816514 8:-0.843478 9:-0.5 10:-0.681818 11:-1 12:-1 13:-1 14:-1 15:-0.847619 16:-0.622642 17:-0.876878 18:-0.448977 19:-0.751028 20:-0.664882 21:-0.9731 22:-0.9731 23:-1 24:1 25:-1 26:-1 27:1 28:-1 29:-1 
-0.5 1:-0.863014 2:1 3:-1 4:1 5:-1 7:-0.798165 8:-0.808696 9:-0.6 10:-0.636364 11:-1 12:-1 13:-1 14:-1 15:-0.819048 16:-0.622642 17:-0.85728 18:-0.389413 19:-0.780879 20:-0.537253 21:-0.972776 22:-0.972776 23:-1 24:1 25:-1 26:-1 27:1 28:-1 29:-1 
-0.5 1:-0.808219 2:1 3:1 4:-1 5:-1 7:-0.779817 8:-0.773913 9:-0.5 10:-0.545455 11:-0.75 12:-1 13:-1 14:-1 15:-0.790476 16:-0.509434 17:-0.82514 18:-0.452891 19:-0.748878 20:-0.4999 21:-0.963959 22:-0.963959 23:-1 24:1 25:-1 26:-1 27:1 28:-1 29:-1 
-0.5 1:-0.780822 2:-1 3:1 4:-1 5:-1 7:-0.724771 8:-0.773913 9:-0.5 10:-0.636364 11:-1 12:-1 13:-0.724138 14:-0.428571 15:-0.761905 16:-0.584906 17:-0.813319 18:-0.55465 19:-0.682434 20:-0.591584 21:-0.95376 22:-0.95376 23:-1 24:1 25:-1 26:-1 27:1 28:-1 29:-1 
-0.5 1:-0.753425 2:-1 3:1 4:-1 5:-1 7:-0.779817 8:-0.773913 9:-0.5 10:-0.636364 11:-1 12:-1 13:-0.724138 14:-0.428571 15:-0.790476 16:-0.584906 17:-0.833283 18:-0.55465 19:-0.682434 20:-0.646688 21:-0.957838 22:-0.957838 23:-1 24:1 25:-1 26:-1 27:1 28:-1 29:-1 
-0.5 1:-0.780822 2:-1 3:1 4:-1 5:-1 7:-0.724771 8:-0.773913 9:-0.5 10:-0.636364 11:-1 12:-1 13:-0.724138 14:-0.428571 15:-0.761905 16:-0.584906 17:-0.813319 18:-0.55465 19:-0.682434 20:-0.591584 21:-0.95376 22:-0.95376 23:-1 24:1 25:-1 26:-1 27:1 28:-1 29:-1 
-0.5 1:-0.753425 2:-1 3:1 4:-1 5:-1 7:-0.504587 8:-0.426087 9:-0.5 10:0.0454545 11:-0.25 12:-0.6 13:1 14:-0.714286 15:-0.457143 16:-0.0188679 17:-0.506981 18:-0.506521 19:-0.716633 20:0.388232 21:-0.900341 22:-0.900341 23:-1 24:1 25:-1 26:-1 27:1 28:-1 29:-1 
-0.5 1:-0.753425 2:-1 3:1 4:-1 5:-1 7:-0.504587 8:-0.426087 9:-0.5 10:0.0454545 11:-1 12:-1 13:1 14:-0.714286 15:-0.457143 16:-0.0188679 17:-0.506981 18:-0.506521 19:-0.716633 20:0.388232 21:-0.900341 22:-0.900341 23:-1 24:1 25:-1 26:-1 27:1 28:-1 29:-1 
-0.5 1:-0.753425 2:-1 3:1 4:-1 5:-1 7:-0.504587 8:-0.426087 9:-0.5 10:0.0454545 12:-0.2 13:1 14:-0.714286 15:-0.457143 16:-0.0188679 17:-0.506981 18:-0.506521 19:-0.716633 20:0.388232 21:-0.900341 22:-0.900341 23:-1 24:1 25:-1 26:-1 27:1 28:-1 29:-1 
-0.5 1:-0.972603 2:-1 3:1 4:-1 5:-1 7:-0.614679 8:-0.773913 9:-0.2 10:-0.863636 11:-1 12:-1 13:0.310345 14:-0.142857 15:-0.704762 16:-0.660377 17:-0.784702 18:-0.892304 19:-0.0256003 20:-0.992426 21:-0.858402 22:-0.858402 23:-1 24:1 25:-1 26:1 27:-1 28:-1 29:-1 
-0.5 1:-0.972603 2:-1 3:1 4:-1 5:-1 7:-0.614679 8:-0.773913 9:-0.2 10:-0.863636 11:-1 12:-1 13:0.310345 14:-0.142857 15:-0.704762 16:-0.660377 17:-0.784702 18:-0.892304 19:-0.0256003 20:-0.992426 21:-0.858402 22:-0.858402 23:-1 24:1 25:-1 26:1 27:-1 28:-1 29:-1 
-0.2298475139471987 1:-0.890411 2:1 3:-1 4:1 5:-1 7:-0.449541 8:-0.530435 9:-0.2 10:-0.409091 11:-0.25 12:-1 13:-0.310345 14:-1 15:-0.485714 16:-0.283019 17:-0.566321 18:-0.78965 19:-0.369829 20:-0.496891 21:-0.828422 22:-0.828422 23:-1 24:1 25:-1 26:1 27:-1 28:-1 29:-1 
-0.5 1:-0.616438 2:-1 3:-1 4:-1 5:1 7:0.00917431 8:-0.356522 9:-0.4 10:-0.0909091 11:-1 12:-1 13:-0.724138 14:-1 15:-0.152381 16:-0.0943396 17:-0.266051 18:-0.683021 19:-0.553888 20:0.408139 21:-0.792928 22:-0.792928 23:-1 24:1 25:-1 26:1 27:-1 28:-1 29:-1 
-0.5 1:-0.863014 2:-1 3:-1 4:-1 5:1 7:-0.614679 8:-0.721739 9:-0.5 10:-0.545455 11:-1 12:-1 13:-0.724138 14:-0.428571 15:-0.67619 16:-0.509434 17:-0.742567 18:-0.552106 19:-0.684388 20:-0.392163 21:-0.939614 22:-0.939614 23:-1 24:1 25:-1 26:1 27:-1 28:-1 29:-1 
